/*
 *
 *  Created on: Sep. 16, 2020
 *      Author: wenda
 *       Email: wenda.zhao@mail.utoronto.ca
 *  dnn with anchor information. Sturcture: 14 x 30 x 30 x 30 x 1
 */

#ifndef _WEIGHTS_H__DNN7__
#define _WEIGHTS_H__DNN7__

// set_weights_for the first layer
float weights_1[420] = {
-0.13365400541402836,-0.20077464506718343,-0.16132910212523846,-0.09362366657509834,0.03658122363921361,0.15924407912541386,0.1860616825885182,-0.029766440261137603,-0.14151336406275775,0.07845057703522122,-0.11888915037138761,0.18611060680854327,0.08279091673587474,0.32489128465911404,0.011987816500461624,-0.15613694539846792,0.16898151096122496,-0.01908741218611799,0.3403098815582885,-0.04669277542580684,-0.11603897379541088,0.3042518278847333,-0.0816673461327096,-0.1328235905817403,-0.005301155555028465,-0.01486390981027012,0.2545941704653889,0.21286178885113863,0.06456198321900677,-0.0660236840090381,

-0.21609181780500428,-0.054147261969389675,-0.16408056196526985,-0.07018410253937477,0.09584118362335586,0.10759653928282367,-0.1521086062928922,-0.09827594751850274,-0.16176899798502084,0.0027518262205066505,-0.025038522584763596,-0.08666017412749984,0.0249069435392463,0.23507782263838325,-0.02312065215720748,-0.18407595803688767,0.18503785076194026,0.1688630080944232,-0.16755045974271363,0.025761848813534056,0.022398539506774715,-0.033574853884189126,-0.214566179237824,-0.273475352741172,0.13301945677384228,-0.08932383782990903,-0.3611942201020668,-0.04858989385808344,-0.216945650995851,-0.12344832721228911,

-0.06022040816739381,-0.0427751127714943,-0.1018550750116081,0.1975168613861246,0.14834075447149517,-0.05686885726341293,0.11006893572958606,-0.08177877257237068,-0.14182976371680278,0.022672208007866013,0.16399462119335362,0.01759318699591344,0.010314703010715883,0.1966098156351368,-0.11808152704218292,0.2598608746322031,-0.039492673204128935,-0.07409256445419601,-0.07938952237908257,0.012176556672539992,-0.01747782684214315,-0.16343568212924223,-0.03579081283057139,0.128076048387117,0.16238325924352848,-0.10669964116867893,-0.00988014264782503,-0.08655536757502376,0.13659979166221062,-0.19350694100342028,

-0.28938380203996955,0.33861190680238146,0.12999021809631173,-0.19063409990273306,-0.2403391384794686,0.02954047610840583,-0.22659564889998904,0.06002369794862489,-0.18016426843948316,-0.07525507326770167,0.2109118606245717,-0.015296791352074818,0.27221311366780887,-0.027986176243038154,0.4221051500969789,0.04877192397177509,0.1396840056382624,0.14242323888269956,-0.17755501454790468,0.11573455233289913,-0.13945740623455755,0.19395208524695925,0.23440475743820152,-0.26503625423780247,0.31420465095566646,-0.12644905939373477,-0.019191984926931607,-0.1930841327436454,-0.009511993539737026,-0.13271528062231613,

0.01568196400480357,0.21042269296461888,-0.15361637221373028,-0.1061307028376872,0.0004411855124489071,0.19131663581032993,-0.18014075559420537,0.17480228161439737,0.1788118187417432,0.20059404383888094,0.028450987034672266,0.09560761540169233,-0.23484929500905297,0.11307446539468831,-0.29034357223658447,-0.12661317006888292,0.09379051110624931,-0.18392455344191946,0.04803433441988174,0.06318605587892516,0.10768557062552415,0.14986608237576926,0.061031114514634076,0.19884939142730723,-0.164915583509915,0.16702935449247144,-0.15243006573214837,-0.2116235968929803,0.014674418896807472,0.08834961307418485,

-0.1987946416835648,0.1182183868881499,-0.19101977491831024,-0.054221362592391076,-0.04763868825211529,0.10123107232863617,0.0030689893367915988,-0.05010947165685555,0.18773288777862174,-0.10028330560809204,-0.13580124191954346,0.12987676346851432,0.20413384291864753,0.1455785316198755,0.09093259815842636,-0.11802943494528209,-0.2577372435291523,0.006390608418399888,0.07897132005067717,-0.05816133369442513,-0.20265792363984086,0.22387140704145353,-0.11487728452429172,0.06037302040539435,-0.16009606640330695,0.0075782214659752285,0.22149619339490476,-0.1727122223938258,-0.06586435463922508,0.20649501321194924,

0.17047959234352386,0.06835284867284172,-0.18459040807715782,-0.0433377341329822,-0.25048421843724245,0.03079712366384991,-0.08404356541796869,0.009599743155117949,-0.029737518228814885,0.10294367963898639,0.10078858922591098,-0.33044808436139195,0.058991361717712444,-0.28272053158975424,0.1112076514217398,0.0686397269617175,-0.17395696207576875,0.21003398761455264,0.2823296331598495,-0.15068568850515157,-0.01692891357828796,-0.10320444165045188,-0.2652948690000722,-0.09046338101839055,0.016854972679041968,-0.04610501957758382,-0.1267252230102924,-0.06141552402619392,-0.16013302192853418,-0.028792540699502926,

0.09126865519692716,-0.048066169191597355,-0.10480366567003405,0.20518336762519868,-0.009208875486028195,0.19114407499044828,-0.0002948851985823104,-0.15737749389989159,0.19970611804184038,0.07609615213894348,-0.2171585277842892,0.056724922474506737,0.04310527576464196,-0.08074063736063365,0.2800644069025972,-0.04747608071486003,0.1574324607675495,0.17868890279577362,-0.025759207258439866,-0.004050338605541511,0.1524011055004702,0.019967339706128042,-0.0416451189810368,-0.08797835146746089,-0.09188585389883339,-0.031200713742805364,0.18022738127725985,-0.14092689958110302,0.030253537717707314,0.16039569642792356,

-0.010326426401985124,0.28260934189989,-0.05595974664778465,0.11134491687841115,-0.16446835495971476,0.01220886115505437,-0.07574466339002844,-0.11800413853749268,0.0603285139856606,-0.20122018384311294,0.022792241963158624,0.01928259172684401,-0.2870371308009822,0.14443229622419168,0.30565391835061706,0.07880638211715917,0.14754769780059462,0.17778912784724812,-0.23911158320742426,-0.09967218457804512,0.19107837789341064,-0.16729330236324352,-0.1125833142133388,0.03979989668941927,-0.03368579371171575,-0.17290266779262556,0.09670821144316563,0.08700955455822663,0.0013763940072855675,-0.07332910205966288,

0.16388414204748528,-0.1906118177871846,-0.2111366656032521,0.003799150875026045,-0.12275037900554198,0.10982273370163137,0.0555322271001407,-0.1235978304228582,-0.20893363578846402,0.008540694394303813,0.32762338053557294,-0.028189605176201265,0.0621754399409455,-0.06652461435897328,-0.24371566157330982,0.1390265226224571,0.11527151258796241,0.15504240798710123,-0.02017090720280123,-0.16933266560127738,0.09938333713499851,-0.22001732146390474,0.18924663429511765,0.040123643206228875,-0.11584498122092252,-0.1922105514582964,0.010388475578231426,-0.07200899886810015,0.12839448582531618,0.061242979639894814,

0.059101263800151724,-0.021890960763042977,-0.09971397141920164,-0.21455597020718184,0.08328942840955726,-0.18838201572173613,-0.17900779517757473,0.17091098171135372,-0.19487119408852546,0.06287750615327595,-0.2861170129565954,-0.40264080901649857,-0.061838753870629044,-0.12068595931523862,0.007538487377006206,-0.1167725430219496,0.09744059438751215,-0.09531176036068652,0.22863342737733183,-0.1208646084686634,-0.026022105478601548,0.07327493483552261,0.14035326186253863,0.003837389680576055,-0.1261743657205093,-0.16395179342148156,-0.07155579202952694,-0.11744676785232819,-0.05648856299422213,0.14961606886779205,

0.1424924358841616,-0.26208938336203536,0.004097206677300654,0.22289682922483506,-0.18827933317618326,-0.34563659857436996,0.0358905427622965,-0.17025061835712507,-0.10284253404821467,0.17751698331538726,0.25665148139237787,-0.0777217836154021,-0.151382545929332,-0.07073436669477919,-0.052928967822368,-0.18724085664109477,0.30197064157478437,0.057852387722050126,0.24162548077186255,-0.19529427546488975,0.037118601055494846,0.03852013005376046,0.12310200333310103,0.06342583720193652,-0.04222593186786912,-0.04911656658300688,0.2711049288776066,-0.13570956487687688,-0.08813442000776925,-0.17091303704644595,

-0.10942905711448975,-0.24422516307749395,0.035108291031375055,0.10299055064704742,-0.00323194334317527,-0.208557283657918,-0.3833134780057923,0.11330558602091322,-0.21244285172240707,-0.32180560753082593,0.029696507838160583,0.008930864821632314,0.1781639220635335,0.09363244324263895,0.1375436203487403,0.029673699695121167,-0.23356668316055515,0.2084546946223913,-0.03252716901036573,0.02399736263442954,-0.16208012674940409,-0.31563587854684966,0.32002867358492015,0.02039404637587504,-0.20002678426765866,-0.10095585638892933,-0.2103661160413733,0.19324644713172945,0.3226940847235026,-0.025666133316769143,

-0.12133516463723497,-0.01924543578938472,-0.030532400369598492,0.09823065772175525,0.2571470070241087,0.049733485295105045,0.15794464839078104,0.2270099150444497,-0.0977069680817441,-0.12227546098509594,0.26026749496366347,-0.019407607034430136,0.042289926549296405,0.21055603788647717,-0.12838458268286707,0.181323413584771,0.10622635980881984,0.14788197557232025,-0.4732295026658999,-0.056227703727654614,-0.013949616936388057,-0.11556998036567818,0.010335286118484518,0.16592930009757403,0.024208112354532078,0.07796927605891057,0.053708564115307215,0.0102060886188322,-0.029294718731093815,-0.08356606472992865,
};




// set_bias_for the first layer
float bias_1[30] ={
-0.03410431756208432,0.12115488421024209,-0.10451664386340251,0.16639578377816022,0.0622011827785824,-0.16910557675017227,0.21392420358783862,-0.052810339951194406,-0.1316798599342712,0.2281813607982945,-0.265360908132797,0.21896583587670373,-0.16757956071481386,-0.00729830408689014,0.1067565368687655,-0.07285716985086102,-0.10954994913886601,-0.12331434755766821,0.13301137306305227,-0.15757139757579328,-0.15726891254647518,0.140909274138192,0.025710216477944203,-0.08717050351564791,0.28787054886661667,-0.11323886025974925,-0.08218817350274112,-0.032907009756601366,-0.08298549722887553,-0.1312583816336403,
};















// set_weights_for the second layer
float weights_2[900] = {
0.12235934416773282,-0.039010239760579705,-0.020907647644618707,-0.03224132582372772,-0.17472934860063374,-0.005677975665341663,0.08244977118287378,-0.08498004386285332,0.05420794956649995,0.1477283717432355,0.013888311071497744,0.10211007739834031,0.0651212690151377,-0.170124103821727,0.09705854392664516,0.14780063981750916,-0.11800488663013865,-0.008872939970902962,-0.007831923243892518,0.02974668544716319,0.12628110822922034,-0.09637428628481319,0.14193393206963245,-0.05524220994315992,0.10397986436690763,-0.06410698133470397,-0.0287833585711695,-0.13695921661775376,0.035329444236735445,-0.004548155595924593,

0.14540139641724917,-0.048645234558325486,0.05878870916705018,0.12357232434338992,-0.22266112916187228,0.05872719786890239,0.11130998362778438,0.028926813919411397,0.10848948884989831,-0.0016981359811507452,-0.1706110958213349,0.16638275747205475,-0.11273435851355132,0.10458572936409552,-0.14141273153687522,0.11884048243002182,-0.11569460069575177,-0.08433191620644048,-0.27151642309377494,-0.03870542511627592,0.007989912489540002,-0.06455080747964681,0.0852947708531053,-0.034819131790408686,-0.12910864450815818,-0.09391395430461238,0.07021522394236329,-0.11353188093299142,-0.08397329940567229,0.004787502968853461,

-0.120685052110284,0.019793370702809655,-0.09757530806432298,-0.021185609334355735,-0.007543466635333378,0.007173709792502136,0.05378801837129195,0.02420998985173622,-0.03940074602633589,0.04432908179717694,0.0682016761555816,-0.09033043877842552,0.03428322059932754,0.034646456783128235,0.030674780213917834,-0.0013604471717742403,-0.01194083328983128,0.03757301405599686,-0.011989830261026012,0.037608189694022125,-0.051226517070050645,0.07725267151314587,0.12227241771556326,0.0018987012840378792,0.06226751128750554,0.1115513083575638,-0.06073398527807267,0.03811622814770612,0.10121458093994737,-0.033701259573069145,

-0.005050020480805603,0.16886937965405757,-0.1927274384309164,0.06822625734613696,-0.10201661600372934,0.016521645278718154,0.021704864761567244,-0.13237842086871615,-0.08324436702208338,-0.06081039279348023,-0.1893128036963488,-0.12122613888669989,-0.1289639135252107,-0.08385882641586509,0.06923601488632658,0.1633235250022708,-0.03967531381061801,0.03643497903626757,0.22541969462597294,-0.07201944352061698,-0.008856405240390908,0.10450542017563863,0.08182285331353173,-0.025428509992430792,-0.13505501708234954,-0.03639246625323823,-0.022799938617335973,-0.08294784217023939,-0.010969204626222619,-0.09384528922676084,

0.07099427824136564,0.07389176337994499,-0.10706944380534446,0.02864102142127099,0.16285760409580458,0.06304017493271215,-0.06904886433649204,0.1510576527376019,0.07569063728370662,-0.06233488499684224,0.1025277499140575,-0.11227255073361009,0.1086332083537301,0.10773868759377045,-0.03932576303131094,-0.049604890280749686,0.016681964807739265,0.06044328614624423,-0.15728871405402237,-0.025568368629279945,-0.12958978579814115,-0.041766723002218904,0.022194721742108865,0.03831813256945847,0.1684001259665026,0.014083269810032982,0.14787705608360713,0.14526209468557424,0.1341004330653314,-0.04703675985733879,

-0.058016630367428317,0.06441066964708127,-0.18733575043135697,0.06176650211735578,-0.23448609133500345,0.09311279062745152,-0.05833512138679633,-0.07277126411180752,0.10542269569711485,0.0036444325533940506,-0.06392192909495198,-0.0625691660832105,0.02835359481054452,0.08926047272824285,-0.12555536893532385,0.15564178712554616,-0.06235044400656982,-0.2878026279680798,0.087781254626342,0.08889404075642406,0.026889909439838412,0.10604693658292333,-0.040647026629744926,-0.012701889048019714,0.05394579402633532,0.024212885778386664,0.013901332943451304,-0.11083571741992683,-0.025421382242672035,0.08122911277970885,

-0.004463843667321713,-0.04135551143597103,-0.043528680399624334,-0.1255825071144606,0.10098181321079963,0.06943308245591333,-0.054151672873340086,-0.02488544652108692,-0.16834324323966424,0.08752161356873242,-0.07008309493391852,0.057514887499714826,0.12420211849125988,-0.17814549756768575,-0.10525247532068946,0.04077918225583942,-0.028617958603655916,-0.13200614614138986,0.06140388867612339,-0.05643268961723113,0.25348855290804134,-0.03419406793129307,0.10046852192794856,0.1388518427095083,0.1343958241326811,-0.03590179868314747,-0.1848367817666876,-0.03510370252632802,-0.11750345736061955,-0.09989389589126849,

0.003228922734529103,0.005577659587718085,-0.09160296521227984,-0.02786139058340786,-0.06425137307269384,-0.1497637373739314,0.010640403800298693,-0.13913871625639054,-0.11550950701974624,0.11269749075344061,0.01873302393902279,-0.1446373581109505,0.05784375950233302,-0.08653307808221421,0.09822215993203767,0.20336712860491407,0.013887539089050074,-0.18982783085692576,0.00018672567928819028,-0.01225146167589902,-0.08034880976813912,-0.10652599477484054,0.10862246501845471,-0.10375775967911925,-0.1815968324828389,0.11597368373589266,-0.11894635577339709,-0.08833321999924654,-0.02316461376641914,0.031043879498831365,

-0.07945055367360514,-0.11866083055185297,0.12807520755746768,-0.14229513066902336,-0.034057887522390876,0.018738230698722717,0.13772588980293599,0.006366033474483611,-0.029235123195488825,0.02377208744633771,-0.033348360259181885,-0.11922507759109063,-0.00546695474983979,-0.07470080647834279,-0.08353520849044063,0.11119561553576378,0.05821131403383502,0.04117982464772889,0.045809115543839644,-0.08430604449503704,-0.0018341988224316985,0.026492584175151036,0.0683369104381907,-0.1412238485827543,0.08255128215778826,-0.1410798092581555,-0.14201240748031546,0.0008127404788350344,0.13503934859339034,-0.08380595017226115,

0.004322990361169987,0.11131370980324644,0.09910906435503765,0.01630103486420702,-0.05095009975288524,0.08296063110580597,0.2983077323845554,0.07823514267322475,-0.08250023310051524,-0.05766755514587857,0.026750169598969965,-0.05733469309666175,-0.12758068921602794,-0.1303665229662179,-0.017420037209777244,0.13152017003049118,-0.1877584012284444,-0.05939869322317446,0.02049710600699785,-0.13771117615648568,0.17124322845014267,0.08627184656273941,0.033426394774037096,0.053887023141991265,-0.10633211205917521,0.12160526225710691,0.0010741988004637736,0.08783793232186467,-0.0878681084927751,-0.09855313083450996,

0.19672859500312795,-0.17231255397441997,-0.2695013647801585,-0.15806453866072415,0.14052555876062897,-0.15698949631845907,-0.060859063911669974,-0.020666873756573292,0.05770405757548928,0.051466733691855754,-0.24543575982945237,-0.0030396081156572,0.06754540303918077,0.1179436213475854,-0.005522428073191714,0.08860823109066751,-0.11005619320304727,0.24788918605160906,-0.12620818111644963,-0.001753219747907329,0.17146234361827115,0.030010855184656255,-0.03440427237490711,0.0050469867543674884,0.14649067404693444,0.010847779059986812,0.18413620170812073,-0.038097236759020145,-0.015208168842741456,-0.08226532906832332,

0.11903677637597364,-0.12506490513167914,-0.05195151708417418,0.047275572316715905,0.20177518742452,-0.04515251453833242,-0.13458869344177016,-0.09384665995019517,-0.11250881588687986,-0.1331090155697171,-0.018190443932481187,-0.10236316011634616,0.1026264984066164,-0.0001834197393163362,-0.055752790153732336,-0.15037966626054508,0.0494398642689463,0.1429688908803504,0.06071826598004584,0.10868063351222568,-0.23814175980831367,-0.07627900342267006,0.028771582187501504,0.11169649952177711,-0.043906360187078025,0.07782888818465147,0.17148221504722155,-0.013825789919975795,0.0521564197500106,-0.05683291825823736,

-0.03809325558210808,0.03940507066484154,-0.32581889659536395,-0.14058144184014162,-0.1732308642674865,0.0413615695785753,0.13812692972307994,-0.17681696813348577,0.11903148655184759,0.1781753952852739,0.06357656426319547,0.08266000784884227,0.029422045893421473,0.003024423545436123,-0.07991536894580274,0.1387498097922741,0.14173261688865757,0.00852934031245241,0.013712593260080144,0.12424668160014496,0.16763686507136152,0.11879127146420551,0.061353728865314726,0.030008544901877612,0.1072288931094355,-0.12420730639365073,0.04882173342258988,-0.12484728311876965,-0.02220699865663622,0.12198442218887112,

-0.1865483206981514,-0.18740547623871553,-0.07237271397826096,0.1273537187374337,0.14194697839540077,-0.0809214486921117,0.04089949710270705,-0.07915683215188958,-0.08348655523275499,-0.08791044128208889,0.11624150265607953,0.030300714803979407,-0.03431264836782166,0.0057568422088858555,0.15349753073904948,0.2179933273495752,-0.0721014947996848,0.10673512444686947,0.11721579136498621,0.034994997625694774,0.17093337452794075,-0.1487980366434533,0.1660955866407114,-0.048649614366999494,-0.13682496882793185,0.05193344365199955,-0.06659672268299656,0.0029785220815083313,-0.037041021494519176,-0.02953569396085187,

-0.05671624331719874,0.14597883336065312,0.13186321806171153,-0.1391142807147512,-0.15311234522009465,-0.03737047525046827,-0.14439746626334377,-0.10667567995828882,-0.08227597334581405,0.19740368752223345,-0.11445904235378809,0.20150481541281767,-0.11659106246111298,-0.08794332940225238,0.062401474481893954,0.039193538050146526,0.09182976299744251,-0.18721242944600744,-0.3416709371385232,0.07186862009861521,0.1003334822596775,0.03956596971812543,-0.13613196869010533,-0.0218728137677759,0.034077058177123684,0.04560939813938575,-0.20107985212612897,-0.07007789355218484,-0.06920580717998043,-0.06704212396880593,

-0.03731384922243325,-0.1441667494370281,-0.01541454425159705,0.02692354062752577,0.035753199545007205,-0.07630596343640303,0.1654293265057594,-0.008170587047007275,-0.1405683738977878,0.018069196578240545,-0.12338669178345373,0.03389399224530635,-0.11348136868496032,-0.1247759664067273,0.04822452101604738,-0.017922197171791512,-0.058797086836472265,0.10945940067035541,0.09098765833114318,0.04538186320186438,-0.016684328554555785,0.040300475322224555,-0.1622672312024167,0.11846062420292132,0.12185490322134417,-0.016590745974247895,-0.11447301570407921,0.09039425890646054,0.07654034777334989,0.13698885494736748,

0.013285536208775782,-0.02158977905260104,0.1189693989041173,-0.15349558199913899,0.1033122192450386,0.05933654238086764,0.026547600709595456,0.16929960401893634,0.19124701553137247,-0.006204798822422915,0.05620076555848005,0.0461706729991987,-0.05988535885268351,-0.005428767128703099,-0.07951621262296149,0.013454860204432718,0.032363512139419605,0.02771935466036182,0.09742515218315714,-0.13389324023922428,0.20429691289205976,0.1392653247045118,0.1634480609963184,0.035021778376858714,0.15610917658208195,0.07140897107885408,0.19308862117636447,0.13368310393458746,0.011277424883122012,0.0906979409249082,

0.08399970457503646,0.11097306607303695,-0.11507138531553637,-0.03484663718496967,0.05789460621322083,0.11398682337318111,-0.16531070756355543,0.0763440483149066,0.03280090511217811,0.08420653130956117,-0.09528399609094781,0.004416617276861378,0.11874264951837452,-0.17808241365791977,-0.07414708654940533,-0.022553809949739472,0.2083557369816146,0.055038599146902005,-0.02891318484910515,0.0010993236292722234,0.10299521338807724,-0.09948970721708338,-0.014368285612584152,-0.008797560214329777,0.15235237571671204,-0.06608395017877006,0.15219268393523755,0.040519656478303724,0.019555965574893273,0.039429414364285285,

0.05462428049124692,0.4047113322545599,0.024653173644063244,0.09661114717095436,0.0186292727779417,0.17539223943839324,0.13215537630314045,-0.16366603084382966,-0.10334104187501304,-0.0819827006134542,0.25286218648163855,0.0568259418692672,-0.09346321324568493,0.033910390606616374,-0.13943021823490342,-0.090578984646582,0.15191838992075832,0.22779142700612512,0.08259643430386736,0.058041483180004724,-0.042996726919828775,-0.07565302969525915,-0.2676749513497638,0.11770647799804274,-0.06785020410477403,-0.11218114391262375,0.14599869858363573,-0.09226077243830218,-0.08885891617651205,-0.04443264345914228,

-0.04611005145423772,0.06131008320322739,-0.10908605097437592,-0.12180825010149054,0.03310068802484525,-0.14298058210942224,0.040540921777179766,0.05624721375323698,0.014724635183049815,-0.061100970877922066,0.14225314195907962,-0.09298707371930198,-0.08424563822593244,0.12310884326749183,-0.09798238836983178,0.10087633195720844,0.1400332501623251,0.1321381139800128,0.08102364003008478,-0.10565114650728823,0.02199097826232703,-0.10662415411291574,-0.11954014728598343,0.13613106692678403,-0.059726458108025404,-0.04535215286467723,0.0544000548797668,-0.005275546392328741,-0.029767653084208527,-0.14477569445695337,

-0.13715732722860433,0.03666725591283395,-0.13292283124541093,-0.035725402525853454,0.05777929590048114,0.11357364976255406,-0.005410705322416437,-0.1386489077677275,0.1312703167455963,0.0538503791738385,0.07776822385758629,-0.0960254281029242,0.11707409032952493,-0.12491693369877573,0.09837204602255387,-0.008436784682350216,0.10316111546615302,-0.12343184258375423,-0.1510422463562325,-0.07289465665742006,0.06918349412967247,0.06476508243961523,-0.135601691966729,0.031772916787616914,0.006271974303799683,-0.13952172650320524,0.08661534521596656,0.11636898977385751,0.062428650086727,0.10827691333407423,

0.033285256421504074,0.06132413737262459,0.24787236292361498,0.0544571645888082,-0.19174582842262625,-0.036980909908795996,0.2656302778325215,0.23002801650216875,-0.07880114332571624,0.00014774914283532028,0.041475145628434726,0.029417963581221694,0.06668170154533488,0.03694806633479171,0.11135389309124034,0.03693323546313355,-0.28163386537736135,-0.1214039186901465,-0.16022995405569238,-0.07629298206233713,0.15475910645074908,0.08691188756290467,0.07926846286649662,0.0060899344767934216,0.0794964784448456,-0.011896491223001794,0.04473108607791221,0.045228683128553764,0.08767478943225267,0.0576242380084796,

0.07125193771510867,-0.13678829498146217,-0.3287102575293778,0.024402638357075193,-0.00294357404492543,0.13139418870492234,0.0667340210290723,-0.014724341574270022,0.2183465915843227,-0.12476206049215399,0.04211184030391673,-0.08681126145561979,-0.0292381208710929,0.21369926277751897,0.09860636948274784,-0.1255693429771497,-0.02061706674445499,-0.17672474356486698,-0.028262368623922413,-0.02821056195110245,0.18184961765529334,0.06844586136040064,-0.15299065944503598,-0.10329305770647423,0.12500773023199474,-0.008338210362157861,-0.13061962196290558,-0.13039611051998498,-0.005217079399588173,0.013226406526656315,

-0.12217345791484696,0.06932694936022434,0.1628452969866963,0.10830147647525834,0.124293864657168,0.06644019889918747,0.02407715356706351,0.007783311782478557,0.026143167383199092,-0.02366932992803759,-0.13315037957570772,0.022242316770398656,0.10859239629006089,0.08810806943523775,0.04490497047303026,-0.14183928340960084,0.02614522805188117,0.08254806445912187,0.0062818191812965465,0.00035456368779527035,-0.15581004356791925,0.11274983403669227,-0.11224691304696736,0.05873411859635125,0.11101465278434365,-0.041784712625841255,0.15278209469027215,0.05169683077417841,0.0771803431103424,0.14108715965735824,

0.06075896105781949,-0.19852807705876263,0.10204675242555482,-0.14722290970807317,0.09905247932033685,0.06424183569862024,-0.12898581982224824,0.09506712118345233,0.06470388100283643,0.07015957335781167,0.054521726746235316,0.1320136160925851,0.021031928117412668,0.05264252264231007,-0.09731328692141926,-0.12290879418585268,0.08620336556288002,0.17149952463344803,0.04276878621766945,-0.10435410606988405,0.08743145772985421,0.1756922404650357,-0.11712618156414238,-0.046974165686712935,0.09271604323574854,0.07326991140353557,-0.06445182591791401,0.05014243113206283,-0.10160182466739885,0.015209313260704103,

-0.12961563272994442,-0.09357274260039278,0.12225993747401047,-0.047522304783357665,-0.10546435849609952,-0.004965608766317834,0.06160010929254724,0.11143627876671276,-0.09685129968354048,0.02236276566777503,0.010589179934792737,-0.011476430409563412,-0.12893694983160392,0.03737593370477894,0.10339110656905903,0.11994669917022341,0.09672151585847732,-0.06627191138257707,-0.0651398667881614,0.045691853521562346,0.03234337722971813,-0.11343418613363224,-0.0648063260982471,-0.1433378542577161,-0.01258972569721553,0.08223685369317378,-0.10326657727006189,-0.03969486292747972,-0.06960404681959262,-0.06699763564815016,

-0.06217954877640684,0.09742324063597103,-0.092899144248523,0.25803737387650444,0.09204689223321856,-0.09018677382099284,-0.2741603428813379,-0.22750753865278026,0.011001503184728263,-0.03170389526960796,-0.04222643564565507,0.11538464970792113,0.1210196015730502,0.05413286801789478,0.021490091426575913,0.03840749923601911,-0.07104026742436877,0.2662505670811243,-0.07707362288982963,0.02369939969101831,-0.12064071074179539,-0.16989636615319909,0.133511241116532,-0.0665679757238922,-0.1208094695226469,-0.03430564564579663,-0.07985081958327953,-0.07118836315242075,-0.021942606935971304,-0.0684477007842968,

0.05992573823540872,-0.13378750080476667,0.017926149633224194,-0.005615835956910575,0.0781476390164409,0.09479931522805841,0.13211688213232967,0.09167560338750162,-0.09422344292097869,0.06642672693856184,0.12706342926803774,0.0025014230689369113,0.12393717031823699,0.04327423420599708,0.05618126796684169,-0.0959684918066556,-0.03414568263750155,-0.1224044280347297,-0.019372345122642163,0.10819452711526907,-0.0521486299893437,0.048948641429785306,-0.09617880347010019,0.037426822453795985,0.01106849884116198,-0.01017628847971619,0.02360076317879946,0.016738309096813276,-0.12520007339218955,0.13475670852715435,

0.07065513178955217,-0.053771470039011664,-0.037378954945404254,-0.1258061852114774,-0.0671085375573119,-0.06432173855452931,-0.009689507795586777,0.11719479383542361,0.07844664191819939,0.05293935783650094,0.02859309299397438,0.025763254416058104,0.01976520666377532,-0.15865604019844837,0.11217885338343896,0.15108187155471056,0.09439956308100982,-0.11804233504974435,0.21181362694944111,-0.0796641743780154,0.1717967037463583,0.05498359798298935,0.12776833445117908,0.11382565723119542,-0.023215730272379952,0.03871990491303388,-0.09081732779909683,-0.1051335667842583,-0.10288365590980952,0.11534512367259143,

0.1158772141998017,0.028262382769162844,0.13528663787074235,-0.07725230339946215,0.14071733601969258,0.12954731795382518,-0.030587590705202353,0.10206183615913748,-0.023043829430484507,0.11369919236664279,-0.0689511496914973,0.03588206007083246,-0.1404648337774842,-0.017918205502297252,0.04175056414375545,-0.03535338053256791,-0.06762601165461668,0.10418889205815496,-0.06225902686067708,-0.01576994150488686,-0.11028050865123709,-0.009737016780449075,0.04165853572121204,-0.08229046173364851,0.07590476386333737,-0.11081158983445621,-0.06368323497875437,0.13050623036748818,0.09029555703761534,0.14200239716285046,
};






























// set_bias_for the second layer
float bias_2[30] ={
0.0030719483409257166,-0.07905723592873451,0.10508266725825322,0.1831869572162899,-0.043612612302362276,0.07031313395327914,0.0670193961181838,0.15379044590000723,-0.04215820017223327,0.12768182876330597,0.10309352983052418,0.11163685547530061,-0.0324287440336552,0.08839922339670138,0.0732498996686119,0.11474389137035029,0.08546432797010116,-0.018143349460735727,0.009667047554877217,-0.05145591422750979,-0.0394761822816588,0.10450586145821968,-0.002840732581698612,-0.13730999258087373,0.07478028399169971,-0.12179976812052785,-0.0097516962249598,-0.06897346922283552,-0.024500397413723084,-0.10813328962171258,
};



















// set_weights_for the third layer
float weights_3[900] = {
-0.09407696929619018,0.10292566856127744,0.03923940242583036,-0.1458518861712185,0.13595656386843677,0.1462179181050034,-0.1165664776201036,-0.010618734417395276,-0.21285187427139438,0.11865044928427469,0.008775311204057007,0.09745508029140082,-0.042029741250129087,-0.13653966124825337,0.06504789180146577,-0.10237431718358242,-0.001561786763999247,-0.021528032612589766,-0.08659829139477832,-0.060617087008752575,0.014624969843413976,-0.040381564288713666,-0.1200314374495247,-0.08435690145780567,0.13133842854930322,0.10810823018143194,0.017607799570361758,-0.015429802961409007,0.07240240226925442,0.05789029430815696,

0.08439604235495658,-0.02726911526839838,0.15224367892836765,0.10490927086111262,0.08544469696284171,0.1859461006823578,0.1162111951906059,0.07788265653268105,-0.11472773869720053,0.051824725187584596,0.17741646646000603,0.0772016034427107,-0.1522012775872873,-0.09014367451650801,0.010954930572585026,-0.03355395472381535,0.19469487458368412,-0.13600327674958293,0.05374232962902292,-0.2248939621706349,0.0478792110286532,0.10743541661897321,-0.052689608173249546,-0.08607976003777465,0.10101024221798267,-0.044583900603503236,0.1200622868689241,-0.14292489416872883,0.2637573599397233,0.13494264927780975,

-0.002264191793102909,-0.09264781995184249,-0.03652369717749418,-0.027643195544772656,-0.055629395913464136,0.03198717246768533,0.15290286644623244,-0.06592522547155989,0.3464495605400704,-0.009082703382432264,-0.2670025753442868,0.09500119526091833,0.16431469378906524,-0.031394504820077176,-0.08479032774105737,-0.03720845978769916,0.04330437027714753,0.035004146464943466,-0.02279875391515595,0.21505604661248037,-0.05249455299509929,-0.3376365741417652,-0.0060189194206372604,0.056714421669441246,-0.10985646542939793,0.1489984179084802,-0.0005158976995254872,-0.08047073120746702,-0.10399608219763284,-0.08770650460226205,

0.0978562797443382,-0.05630091301178366,-0.017778168009020576,-0.15993395135097352,-0.07964544013733535,0.06676071762444367,-0.2781278773248669,-0.06637023336176186,0.20435821142754595,0.06588486112402686,-0.13150727759274805,-0.05786058633170868,-0.04207489029094508,-0.08230139233532512,-0.0435321245639031,-0.06328932958097944,0.06525895911885192,-0.014220291085995434,-0.0955326071122069,0.0636734472746235,-0.0010866694606111002,0.041538312090305986,0.18122908416649652,-0.1499083538397866,-0.026052513164504243,0.14886746629992115,-0.05631897811087002,0.1027038687926048,-0.12381801948510167,-0.1778625069863142,

0.05275274017884107,0.07116532247772975,0.04069293513868062,-0.07645762357475824,-0.07413356075063739,-0.09596612940270867,-0.18046220588042344,0.052569532370170174,0.1989857020192867,-0.11213379367941625,-0.17371694245577216,-0.07907550091836224,0.11415647220310965,0.015120096158031563,0.02578817487969999,0.12142240758101701,-0.17523263831083,-0.03223495259700607,0.12928767348995174,0.1487402128895514,0.10857814124858622,-0.35525729274700407,-0.049846023561368503,0.1188348654634668,0.05662799767914756,0.13924666321397627,-0.058555440960999405,0.012144466852396864,-0.14535114167254753,0.0019454852155897438,

0.14024626924258757,0.0938625832588145,0.04611142626689461,-0.13455997406931539,-0.09466251041188471,-0.14188861404569694,0.17119670032336534,-0.059121095144515017,0.11623444728365599,0.12904372681491708,-0.05591938316271386,0.10184234679066223,-0.09435731586560678,-0.09005610501946908,-0.07710335391322105,0.09933305687230849,0.03008895171652962,0.03956264796406108,0.0952786079585088,0.1295435125632039,0.03254334999146141,-0.09448953702518742,0.019383688250155663,-0.11817997165965755,-0.12823895877643324,0.02060628560970184,0.042310254291758345,0.07212568921214559,0.05150543466156872,-0.002760647398498328,

0.0012399756582594163,-0.06587274075210152,0.09273651098238611,-0.08490466529213088,0.12462569549906008,0.22920751219309268,-0.044880010042022696,-0.1352104145876237,-0.11381565643191749,-0.0895245283916783,0.23795818093900425,0.02561096960362684,-0.03956875236759175,-0.03918418830478688,-0.08783328018783913,-0.05692574228133647,0.18897794475627108,-0.15922186952316456,0.028028215853691477,-0.24012632510708012,0.12336091496935896,0.26644392253512417,-0.09638437651889563,0.0989014827290738,-0.1204562041413685,0.061549002661535616,0.008715297937043362,-0.10422948809223774,0.1780760344290897,0.21060910645047093,

0.10668523723622614,-0.07917147337570278,0.033302913302802536,0.11620367436614878,0.11683404589029554,-0.23559047576834014,0.19970810123878768,0.01667311289675585,0.14285444074388337,-0.14284417540969205,-0.07579273286226168,0.09326089257715364,0.13398463224925725,-0.021394830015700576,0.020812920940969405,-0.020812401425678462,-0.05370504474321546,0.020001327194807027,-0.05148138640475134,0.21092231360260444,-0.08661786820663704,0.09420721183175564,0.0498137221023976,-0.04620159363711733,-0.020696074530918117,0.027380359584642185,0.06004962630411296,0.09332279974562209,0.060855050242019225,-0.17611698982941326,

0.0552931165041202,0.008352061482393,-0.14706145553598446,-0.11044318807730212,0.04582552702464348,-0.2538987113116928,-0.07800134442037665,0.06871983179844038,-0.014876217996528288,0.03945420286574511,-0.08503312496296436,0.03170375422310656,0.10160781639227938,-0.021350325367419716,-0.05505071957645073,-0.11144689469053022,-0.004070794997570114,-0.0399934449673236,-0.017093183158403816,-0.024822702233333244,-0.05028021596371309,-0.11729056533924334,-0.049252429827739704,-0.028577961381592545,0.02290004837921996,0.15421086365674178,-0.09949926614073991,0.04470659716777725,0.04227418774075563,-0.016587102640753446,

0.029108631613029266,0.09000188795976068,0.08125134533786833,0.10453819793455939,0.00680988048312126,-0.03141763234832362,0.10980615795122446,-0.012616019108133682,0.050494771123782124,-0.09297574516620331,0.14890357300904533,0.003811899021110116,0.008756064860370089,0.13420167620477058,0.04945052585379556,-0.1271585807196446,0.03746475468893789,-0.13990891698718383,0.10577815548056585,-0.14387127926723983,-0.14849462882954959,-0.14893949552630045,0.016870435356848654,0.10285487440030727,-0.06937698004591822,-0.09339678733380928,-0.10065029827679592,-0.1384534184376553,0.04307713349398735,-0.011623996863167261,

-0.017156282895743582,-0.033305790255232615,-0.07294830208751885,0.10241488940951113,-0.1368540353097793,0.012575811650061728,-0.1016308291108458,0.01576054124682262,0.23381354112241198,0.0465590634546927,-0.08819240305341786,0.0015113656556803685,0.03954442245044813,-0.06184053503078488,0.054736926404837,-0.04575767165564228,-0.15016350159658112,0.10271073921699862,-0.021769241347376667,0.07983187440661696,0.017685259071404356,-0.29641992075745777,0.12545501616608185,-0.10849637037106626,0.034350965392958926,0.025888380144126893,-0.1286821676594286,-0.04239976623102679,-0.18512525252347434,0.051337654177371274,

-0.047225946544822844,-0.1391556966348954,-0.14541270952013632,0.06854504537029911,-0.11368673324291668,0.11732401715344273,0.1552809974978359,0.03936818874536395,0.031562642467605054,0.11459693895106497,0.16939449776241358,0.11348026625653619,0.03253524654567447,-0.0559481985650946,-0.10607513035595173,-0.05024868242523352,-0.07425237465543509,-0.018447435507638527,-0.024215164428426174,0.0972027372302889,0.010304636142019725,-0.1058332980606877,0.0575695925855625,0.11118536292995024,0.015851076433999085,-0.05128652411137781,-0.08645494972273274,-0.1493749216164372,-0.05536129806858443,-0.08307075179155801,

0.10004126011368354,0.014176602737999333,-0.008299717578819274,0.11195849041705948,-0.018722369054613604,0.1169282610765256,0.027475097774150116,0.0495461938520234,-0.113337755525275,0.12033793221405821,-0.13897007120644866,0.13650115180642286,0.027149734712724763,-0.058570058636878905,-0.12960026695203797,0.13274692652506115,0.034161027396266995,-0.0566321020418966,-0.01546991534935651,0.09894767635369757,0.0003846844012780245,0.07264905156654482,-0.05693388369155163,0.06001819475273173,0.11046429237972069,0.113770220244603,0.05859883681520964,0.07947161387896629,0.08111005290855178,-0.0926258736204132,

-0.13240060279040167,0.0017383940049388107,0.013215728035555097,-0.10586652118836296,-0.03993911705534818,-0.1279611196673316,0.022614197688781604,0.13438176692171203,0.24847518811059685,-0.11928347445973982,-0.29622047710174365,-0.03162845221143951,-0.06270907350201294,-0.14022538175933885,0.002751055545791207,-0.11439069987100882,-0.1484189695965957,-0.12027470758717497,0.01104484959610546,0.19242261135124417,0.05343728045416199,-0.14379419706183458,0.15245099101188636,0.1384596147515194,0.008735971676871221,-0.09039719321729832,-0.00961739467443183,0.150096524672156,-0.009166905941335854,0.03967330271672563,

0.06071709360955518,-4.521155667245599e-05,-0.16983236774415042,-0.09354970151472983,0.040976630549503575,0.028146172349601543,-0.015262165495318853,0.11618885212512631,0.019057456882029353,0.11432705306749148,0.06464638860815576,0.10485977889144257,0.08433035502028204,-0.08271050320344397,-0.06800929519123333,0.13933025988580053,-0.0016618739328420166,0.05636394550437507,-0.06779133779420689,-0.019784610591447427,0.109664270626642,0.20023893011950328,-0.036935893891031524,-0.03186781108274263,-0.07988188198410366,0.13686799033517372,-0.008792270806529093,-0.06333856352889031,0.15568817094656562,-0.08867042967459667,

-0.09821010231110702,-0.04797607232756212,-0.15207828211977897,0.049125831029032174,0.06332910877883599,0.2681512847443799,-0.10836014697438542,-0.08618091876698279,-0.1583652576727504,0.08183044280366965,0.2414007176350265,0.058271528456035594,0.06554952831943076,0.03596973347093477,0.1080796637692825,0.010780033524192196,0.11364094354920304,0.004680693486727783,-0.0701165148696123,0.0029023760461514584,-0.1534004041323355,0.1672739279348404,-0.03687853164477895,0.13400496086283392,-0.09136362109775793,-0.08399089768986917,0.02789309645874916,0.06690097256574734,0.1797568064185697,0.11269034070601468,

-0.1422190617561247,-0.014869211564962723,0.02893908754315149,0.0675592850883129,-0.06816538802628153,0.07721916001437051,0.002106769922987433,-0.046767805308110796,0.21325240416572472,-0.05382787777617064,-0.09047145037434146,-0.04715616269508148,-0.026623941836742264,0.0137542028889347,0.053721039491626855,-0.0744255227485689,-0.07938303329594756,-0.07356035449852286,-0.06789297694129598,-0.08345629533878544,-0.14023209746238618,-0.3286653204629643,0.08574864245367787,0.125962448935787,0.07514663965570982,-0.0895059299597946,-0.08579830614723317,-0.2218192890748022,-0.010397089699972157,0.028722451800225562,

-0.06681658308575343,0.045804695893883966,0.08608750509951156,0.002605761113212023,0.014034259028449321,0.14459848331958045,-0.23966338228200001,-0.0690424478239722,0.11334138687297765,-0.1380590555094921,-0.2621355836428114,0.10288924432583281,-0.03422258091990666,0.011807232511726568,-0.05273850249128468,-0.11882945037121917,-0.15204217297342948,-0.025575864520639167,-0.12070832800838244,0.20208437829349102,-0.06418774359326494,-0.3660635150690085,0.2037225699716089,-0.0825503119126048,-0.14202696578303337,-0.03928342744623246,0.01152714400770462,0.08058048108975528,-0.20315501413282966,-0.10176080422654271,

-0.02182022694593897,0.13744234191672822,0.10549565976914889,0.024973500760885607,0.12259118956677109,0.06364651487771668,0.21253123590670722,-0.12044715566935944,-0.22639804022908694,0.16423221363525828,0.11693008912355594,-0.04649829575305744,-0.047889179267279945,-0.13229610600091424,-0.019071478975734378,0.09514598332714404,-0.05766982565789095,-0.12265095868495114,0.014969427858344929,-0.1202992075347883,0.11896343789554462,0.1780879581214838,-0.22376582221890207,0.09694219352589278,-0.14496156812122324,-0.13605561885017325,0.10700517553154504,0.1862800286211396,0.22303593157283355,0.05906132782077018,

0.09036422211547618,-0.03915989324861548,-0.04914856958798502,-0.005922154993697614,-0.1121776099762577,0.1348892902836228,-0.12317263380760307,0.046974180530005925,-0.018518878062763745,-0.05167738716196191,0.00933449982944524,-0.05896767485814514,0.072281885268891,0.13395479066500843,0.06369974072163842,0.050542211531938094,-0.11719867733359943,0.12135673294403379,0.005340937847590726,0.022485029106391958,-0.09166692400688939,-0.08723747788650475,0.12339329292877482,0.08100088428169099,0.007739627444488402,-0.07860734308722939,0.10599700713118995,0.13667003067843367,-0.08478246105124718,-0.11187640543727287,

0.05559443537150161,-0.10653083537409479,0.035248896100723494,0.18102045691752205,0.10585095602649851,-0.16378356280534373,0.3047225915744264,0.0012882440092620332,-0.2788850519066331,0.14869913407134266,0.18832605674826086,-0.0855892375655642,-0.1875034296140007,0.013594811145408364,-0.14096222662073724,0.12288491139749573,-0.06390346206224218,0.1132817001978668,0.06087862251942122,-0.019793951920621587,0.11953531888507925,-0.05044380398876272,-0.0989977703927813,-0.019928982785924948,0.09894371727175127,-0.1621358377589104,0.0357576851420932,0.18400331934256306,0.09868509610921708,0.15357860250660554,

-0.032330855426928956,0.137353239716916,0.13527778959205147,0.024811674003162046,-0.12065401942147444,-0.16085667301245393,0.17164382764969266,-0.0038818854021394067,-0.04609492338933064,-0.09513943613256118,0.035518790480709495,0.08853340657318755,0.05296484482615899,-0.033468225795217826,-0.0028026539897939113,0.12443946738583746,-0.1204542511165448,-0.017383225711273816,0.03530315945366361,-0.14447445961994507,-0.13495355012997626,0.06691163249153034,-0.09324385961143539,-0.022720925579619185,-0.14032611428946004,0.1397082744093572,0.02717354403480572,0.03754089224621776,0.05954145942545639,0.017145759543131304,

0.03997332312215135,0.0187003312018909,0.02833834096640553,0.14431564953330853,-0.0047946707941442755,0.112969918547707,-0.00041963667985851137,0.09472693932671074,-0.06853560980731387,-0.11091579229185572,0.21723856341989775,-0.007564851812766535,0.08576088710193298,-0.06722663205003741,0.0014921922598214975,0.06539293307551802,0.07429845848543375,-0.006159926105410846,0.0337377887272957,0.022023362354918204,0.10023982880255236,0.2230351041699273,-0.036656357349994166,-0.1330894012196675,0.08774857247787436,-0.03512185932261932,-0.10332769601726369,0.2236494951987463,0.14239992898079193,0.12922273422469727,

0.1079942732678082,0.08898136741436857,0.06684293290118172,-0.13642035678874012,-0.03711383082005213,0.03776766604432142,-0.09455403276404149,-0.11213274986854288,0.06107448450418312,-0.025372072820139934,-0.018243006460715323,0.017213189116124294,-0.12653929474639167,0.10876165969086414,0.11994843286695081,0.08778534228566895,-0.09953620813074981,-0.12390142766639295,-0.029712204475289865,0.019946206163386965,-0.08512537650961449,0.13905295153071465,0.017096220991065548,-0.08615538830136475,-0.005970156516188393,-0.04566984388528126,0.0360413642389241,-0.12422087910165591,-0.08845001905183775,0.030005178442804606,

-0.0010315873146236306,0.1259693639013475,0.07061650259421476,-0.1048524134148802,-0.07228091033105032,-0.2143740688221478,0.16241569000280065,-0.12877771097398855,-0.057305142963555135,-0.1065223732974376,0.10335910986966491,0.08914058660576586,0.12402035455262132,0.029039084843511604,0.08165332818374853,0.004182630576200669,-0.10015698996704037,0.05147235444798034,0.035075547396381995,0.07540524928864678,-0.06228125728506429,-0.11789336992024652,0.12829107345751398,0.05098664804727421,0.025908263065146667,-0.001979500140594053,0.11377361070527267,0.030398676890025417,0.15816145888148495,0.15237762741524105,

0.007498216111533183,0.06950700710947394,-0.015342083685657868,0.0581328691469815,0.010109791264943295,0.07465898995059887,-0.04609271069542659,0.04442474979541842,-0.14413795272098184,-0.109513159570064,0.09120429911770561,0.13181581263228684,-0.03786220729928867,0.011254860849809362,-0.023332676962272415,0.002172355220129727,-0.0908938440025434,0.010951566153144224,0.13415057945468667,0.009357235884372902,0.14110362977631033,-0.10657144415746149,-0.04818246713818607,0.017575470876117338,-0.04023107098443378,-0.059833899103893765,0.02572235377696612,0.11639602888490334,0.05280881072784419,-0.13730456770707752,

-0.04589149879398337,-0.059837259211573096,0.12870361533155988,-0.17208009121758402,-0.14102422730129952,-0.1656896267947336,-0.017901270595922687,-0.01394087660675412,0.1202873090922355,0.01057942796174103,-0.0644330209935554,-0.09374621375170027,0.15614430873167195,-0.008323548527717706,0.10553093957549838,0.030555003737643218,0.04519632184602156,-0.063765367462774,0.00015411188339512185,0.15115848388717967,0.07567957109991366,-0.233859248404809,0.08971488920031168,-0.0572176948232596,-0.09133493197917915,0.16411933095756587,-0.07945461479882282,0.192753948204043,-0.19795222383529126,-0.1738557058149621,

-0.03758682128803833,0.013145517005128933,-0.12742699366128385,-0.04411397726686706,0.12477370480548015,-0.09067181534843165,0.08452756805002211,-0.040818046075400995,0.0982700135354092,-0.07074783078986044,-0.12749427107352168,-0.10362086387247221,-0.10113052895820446,0.0177611560305602,0.07133269089677739,-0.10265713536936263,0.12301013652045575,0.05598508251525441,-0.11867566574628614,0.044017532384627335,0.12815694016973542,0.11335820360851326,-0.06269117107659132,-0.1409530013202485,-0.1420594429102191,0.025860021632485453,-0.049260781058455674,-0.06819928796948994,0.10853307210477929,-0.032083553672957184,

0.05585261962662697,0.12621763462896338,-0.01805307315554118,-0.010926694174486383,-0.0675218414176082,0.08677071408378653,-0.133517364729332,0.04493483662366293,0.08056119423813526,-0.05296161501144893,0.05082845554996268,0.030939311461546413,0.0034210374907727103,0.019400060521124234,0.08423795533695945,-0.052504322811144956,0.1383941348969739,-0.08544036308206947,-0.09862070344592601,0.12238762542595456,0.08470833932253939,-0.004599892639184488,0.11426263193073061,-0.02046309270460695,0.05814910282019421,0.06508030955547242,0.11528028816457371,-0.07015074314806433,0.13794457308418634,0.053887035016630294,

-0.060191017585046074,-0.04685216568499803,-0.0663470125126859,0.11642627358065182,-0.14002112615980308,0.13849816857568586,-0.02443402265612215,-0.048328352049865665,0.11889269467812288,-0.0818123770471863,0.07752982549795397,-0.04520288870061925,0.06363899008810657,-0.06839853385738727,0.12077438499066137,0.0946493742098002,-0.11603322315662422,0.12889696793496158,-0.11553929770685552,0.06389836774409152,0.0518237221592107,-0.12896001037307175,-0.11755145463595515,0.14042923362122917,0.028138616415467815,0.06948166682955238,0.01782432166800336,-0.1327618410668135,-0.0848655654294721,-0.055944523365501764,
};
















// set_bias_for the third layer
float bias_3[30] = {
-0.10209503763908193,0.0848191177569846,-0.006389900142891216,-0.010711445467382999,-0.02461174273426346,0.07840750664832113,-0.17657082944410776,-0.021450018866973754,0.1788388086759278,0.05920666323688045,-0.09937977428336145,-0.10980881864076732,0.011970411350928413,-0.12786771018252985,-0.04870381317056334,-0.12820926031387783,0.0793353423279418,0.12490852871145343,0.12412665092836762,0.09290206862404271,-0.037241025050860445,0.09918045613095898,0.14942802348414475,-0.0631541785498168,-0.07429434959120078,0.09695553089108311,-0.09652303133165101,-0.12403487712565889,-0.012830719252118232,0.007144733536929496,
};




















// set_weights_for the fourth layer
float weights_4[30] = {
-0.09914608480427357,-0.05080333505452416,-0.2870039368967887,-0.2193221724213228,0.024159875109554075,-0.610086904844746,-0.628462372653663,0.11274150304039374,0.7520937004034738,-0.18382218420305577,-0.7048086582099815,-0.02310989172600221,0.3149400564257882,-0.09791320674533352,-0.06314152599705343,0.13457545409594493,-0.3200825644869566,0.12305761703357426,-0.03358042976635733,0.4906582283716025,0.054333353348447015,-0.8837461428232112,0.4020434932446777,0.04918019076574487,-0.024340953718671888,0.22703150779585318,0.11795740091381125,0.41851937387977395,-0.5144390707366843,-0.3452969641683757,
};















































// set_bias_for the fourth layer
float bias_4[1] = {
0.4411787893609028,
};














#endif /* _WEIGHTS_H__DNN7 */
